<?xml version="1.0"?>
<opencv_storage>
<cascade>
  <stageType>BOOST</stageType>
  <featureType>HAAR</featureType>
  <height>30</height>
  <width>30</width>
  <stageParams>
    <boostType>GAB</boostType>
    <minHitRate>9.9500000476837158e-01</minHitRate>
    <maxFalseAlarm>5.0000000000000000e-01</maxFalseAlarm>
    <weightTrimRate>9.4999998807907104e-01</weightTrimRate>
    <maxDepth>1</maxDepth>
    <maxWeakCount>100</maxWeakCount></stageParams>
  <featureParams>
    <maxCatCount>0</maxCatCount>
    <featSize>1</featSize>
    <mode>BASIC</mode></featureParams>
  <stageNum>20</stageNum>
  <stages>
    <!-- stage 0 -->
    <_>
      <maxWeakCount>3</maxWeakCount>
      <stageThreshold>-9.5085078477859497e-01</stageThreshold>
      <weakClassifiers>
        <_>
          <internalNodes>
            0 -1 57 1.4279053546488285e-02</internalNodes>
          <leafValues>
            -8.7500000000000000e-01 8.3928573131561279e-01</leafValues></_>
        <_>
          <internalNodes>
            0 -1 60 3.3824019134044647e-02</internalNodes>
          <leafValues>
            -6.5749955177307129e-01 8.5698801279067993e-01</leafValues></_>
        <_>
          <internalNodes>
            0 -1 62 1.1376410722732544e-02</internalNodes>
          <leafValues>
            -8.1666070222854614e-01 5.8164876699447632e-01</leafValues></_></weakClassifiers></_>
    <!-- stage 1 -->
    <_>
      <maxWeakCount>4</maxWeakCount>
      <stageThreshold>-7.3249274492263794e-01</stageThreshold>
      <weakClassifiers>
        <_>
          <internalNodes>
            0 -1 29 -1.2608252291101962e-05</internalNodes>
          <leafValues>
            4.6564885973930359e-01 -6.9892472028732300e-01</leafValues></_>
        <_>
          <internalNodes>
            0 -1 40 -1.2370315744192339e-05</internalNodes>
          <leafValues>
            5.1612633466720581e-01 -7.2088229656219482e-01</leafValues></_>
        <_>
          <internalNodes>
            0 -1 27 -2.0488211885094643e-04</internalNodes>
          <leafValues>
            -9.3873071670532227e-01 4.1610813140869141e-01</leafValues></_>
        <_>
          <internalNodes>
            0 -1 21 -3.0297739431262016e-04</internalNodes>
          <leafValues>
            -7.7553719282150269e-01 4.1894283890724182e-01</leafValues></_></weakClassifiers></_>
    <!-- stage 2 -->
    <_>
      <maxWeakCount>4</maxWeakCount>
      <stageThreshold>-7.7601188421249390e-01</stageThreshold>
      <weakClassifiers>
        <_>
          <internalNodes>
            0 -1 23 4.1403414797969162e-04</internalNodes>
          <leafValues>
            3.9597314596176147e-01 -8.3999997377395630e-01</leafValues></_>
        <_>
          <internalNodes>
            0 -1 14 -1.1810717296611983e-05</internalNodes>
          <leafValues>
            4.7543981671333313e-01 -7.2952449321746826e-01</leafValues></_>
        <_>
          <internalNodes>
            0 -1 2 -1.0747948181233369e-05</internalNodes>
          <leafValues>
            4.3038022518157959e-01 -7.3366057872772217e-01</leafValues></_>
        <_>
          <internalNodes>
            0 -1 30 -3.1494663562625647e-04</internalNodes>
          <leafValues>
            -8.7284076213836670e-01 4.2527863383293152e-01</leafValues></_></weakClassifiers></_>
    <!-- stage 3 -->
    <_>
      <maxWeakCount>3</maxWeakCount>
      <stageThreshold>3.1693745404481888e-02</stageThreshold>
      <weakClassifiers>
        <_>
          <internalNodes>
            0 -1 8 5.1120819989591837e-04</internalNodes>
          <leafValues>
            3.6305731534957886e-01 -9.1044777631759644e-01</leafValues></_>
        <_>
          <internalNodes>
            0 -1 30 3.4688232699409127e-04</internalNodes>
          <leafValues>
            4.2891201376914978e-01 -9.0032148361206055e-01</leafValues></_>
        <_>
          <internalNodes>
            0 -1 43 -1.2626673196791671e-05</internalNodes>
          <leafValues>
            5.6895792484283447e-01 -6.9005668163299561e-01</leafValues></_></weakClassifiers></_>
    <!-- stage 4 -->
    <_>
      <maxWeakCount>4</maxWeakCount>
      <stageThreshold>-7.3678040504455566e-01</stageThreshold>
      <weakClassifiers>
        <_>
          <internalNodes>
            0 -1 45 -1.0747948181233369e-05</internalNodes>
          <leafValues>
            5.1181101799011230e-01 -7.1134018898010254e-01</leafValues></_>
        <_>
          <internalNodes>
            0 -1 32 -1.3000570106669329e-05</internalNodes>
          <leafValues>
            4.8619428277015686e-01 -8.0998945236206055e-01</leafValues></_>
        <_>
          <internalNodes>
            0 -1 12 5.3285720059648156e-04</internalNodes>
          <leafValues>
            3.9350065588951111e-01 -8.9533263444900513e-01</leafValues></_>
        <_>
          <internalNodes>
            0 -1 17 1.8401938723400235e-04</internalNodes>
          <leafValues>
            4.4360986351966858e-01 -8.3210265636444092e-01</leafValues></_></weakClassifiers></_>
    <!-- stage 5 -->
    <_>
      <maxWeakCount>3</maxWeakCount>
      <stageThreshold>-1.0533974170684814e+00</stageThreshold>
      <weakClassifiers>
        <_>
          <internalNodes>
            0 -1 3 -3.3589784288778901e-04</internalNodes>
          <leafValues>
            -9.6969699859619141e-01 3.7974682450294495e-01</leafValues></_>
        <_>
          <internalNodes>
            0 -1 46 -4.2917374521493912e-03</internalNodes>
          <leafValues>
            5.8851796388626099e-01 -6.7255097627639771e-01</leafValues></_>
        <_>
          <internalNodes>
            0 -1 45 -1.0747948181233369e-05</internalNodes>
          <leafValues>
            5.5587321519851685e-01 -7.6059329509735107e-01</leafValues></_></weakClassifiers></_>
    <!-- stage 6 -->
    <_>
      <maxWeakCount>3</maxWeakCount>
      <stageThreshold>-3.7305364012718201e-01</stageThreshold>
      <weakClassifiers>
        <_>
          <internalNodes>
            0 -1 51 -5.8957882225513458e-02</internalNodes>
          <leafValues>
            9.3939393758773804e-01 -4.1772150993347168e-01</leafValues></_>
        <_>
          <internalNodes>
            0 -1 14 -4.0472729597240686e-04</internalNodes>
          <leafValues>
            -8.7299484014511108e-01 5.3534859418869019e-01</leafValues></_>
        <_>
          <internalNodes>
            0 -1 55 -1.7687728628516197e-02</internalNodes>
          <leafValues>
            9.6931570768356323e-01 -4.3945273756980896e-01</leafValues></_></weakClassifiers></_>
    <!-- stage 7 -->
    <_>
      <maxWeakCount>3</maxWeakCount>
      <stageThreshold>3.9706379175186157e-02</stageThreshold>
      <weakClassifiers>
        <_>
          <internalNodes>
            0 -1 41 3.5403502988629043e-04</internalNodes>
          <leafValues>
            5.0354611873626709e-01 -9.0361446142196655e-01</leafValues></_>
        <_>
          <internalNodes>
            0 -1 25 -1.1608258319029119e-05</internalNodes>
          <leafValues>
            5.2004659175872803e-01 -7.9567056894302368e-01</leafValues></_>
        <_>
          <internalNodes>
            0 -1 18 -8.9021213352680206e-04</internalNodes>
          <leafValues>
            -9.8388636112213135e-01 4.3793585896492004e-01</leafValues></_></weakClassifiers></_>
    <!-- stage 8 -->
    <_>
      <maxWeakCount>4</maxWeakCount>
      <stageThreshold>-6.9385582208633423e-01</stageThreshold>
      <weakClassifiers>
        <_>
          <internalNodes>
            0 -1 33 -1.1810717296611983e-05</internalNodes>
          <leafValues>
            5.6666666269302368e-01 -6.9230771064758301e-01</leafValues></_>
        <_>
          <internalNodes>
            0 -1 20 6.9657736457884312e-04</internalNodes>
          <leafValues>
            3.9369878172874451e-01 -9.0013438463211060e-01</leafValues></_>
        <_>
          <internalNodes>
            0 -1 24 -5.4295803420245647e-04</internalNodes>
          <leafValues>
            -8.7716245651245117e-01 4.5359098911285400e-01</leafValues></_>
        <_>
          <internalNodes>
            0 -1 54 -1.2868834346591029e-05</internalNodes>
          <leafValues>
            4.8191553354263306e-01 -7.5071263313293457e-01</leafValues></_></weakClassifiers></_>
    <!-- stage 9 -->
    <_>
      <maxWeakCount>4</maxWeakCount>
      <stageThreshold>-6.2584525346755981e-01</stageThreshold>
      <weakClassifiers>
        <_>
          <internalNodes>
            0 -1 9 -1.9309832714498043e-04</internalNodes>
          <leafValues>
            -8.7654322385787964e-01 4.6853145956993103e-01</leafValues></_>
        <_>
          <internalNodes>
            0 -1 13 -1.2577249435707927e-05</internalNodes>
          <leafValues>
            5.2380120754241943e-01 -6.7249828577041626e-01</leafValues></_>
        <_>
          <internalNodes>
            0 -1 1 -1.0747948181233369e-05</internalNodes>
          <leafValues>
            4.9219784140586853e-01 -7.7609103918075562e-01</leafValues></_>
        <_>
          <internalNodes>
            0 -1 75 3.2286072382703424e-04</internalNodes>
          <leafValues>
            5.2926754951477051e-01 -7.6530104875564575e-01</leafValues></_></weakClassifiers></_>
    <!-- stage 10 -->
    <_>
      <maxWeakCount>4</maxWeakCount>
      <stageThreshold>-6.4216452836990356e-01</stageThreshold>
      <weakClassifiers>
        <_>
          <internalNodes>
            0 -1 39 -1.1508817806316074e-05</internalNodes>
          <leafValues>
            4.7826087474822998e-01 -8.1395345926284790e-01</leafValues></_>
        <_>
          <internalNodes>
            0 -1 6 1.3100678916089237e-04</internalNodes>
          <leafValues>
            4.3584090471267700e-01 -8.3705586194992065e-01</leafValues></_>
        <_>
          <internalNodes>
            0 -1 28 -1.1484190508781467e-05</internalNodes>
          <leafValues>
            6.2151819467544556e-01 -6.3889449834823608e-01</leafValues></_>
        <_>
          <internalNodes>
            0 -1 4 -2.9140245169401169e-04</internalNodes>
          <leafValues>
            -9.0488773584365845e-01 4.7662374377250671e-01</leafValues></_></weakClassifiers></_>
    <!-- stage 11 -->
    <_>
      <maxWeakCount>4</maxWeakCount>
      <stageThreshold>-4.6926614642143250e-01</stageThreshold>
      <weakClassifiers>
        <_>
          <internalNodes>
            0 -1 71 4.7819539904594421e-02</internalNodes>
          <leafValues>
            -4.0506330132484436e-01 9.0909093618392944e-01</leafValues></_>
        <_>
          <internalNodes>
            0 -1 7 -2.9717365396209061e-04</internalNodes>
          <leafValues>
            -8.6828732490539551e-01 4.2581278085708618e-01</leafValues></_>
        <_>
          <internalNodes>
            0 -1 15 3.3877932582981884e-04</internalNodes>
          <leafValues>
            3.4184882044792175e-01 -8.6855959892272949e-01</leafValues></_>
        <_>
          <internalNodes>
            0 -1 42 -1.2744085397571325e-03</internalNodes>
          <leafValues>
            4.6223562955856323e-01 -6.8290013074874878e-01</leafValues></_></weakClassifiers></_>
    <!-- stage 12 -->
    <_>
      <maxWeakCount>4</maxWeakCount>
      <stageThreshold>-3.2301601767539978e-01</stageThreshold>
      <weakClassifiers>
        <_>
          <internalNodes>
            0 -1 63 3.1635463237762451e-02</internalNodes>
          <leafValues>
            -3.3333334326744080e-01 1.</leafValues></_>
        <_>
          <internalNodes>
            0 -1 69 -3.7866707425564528e-03</internalNodes>
          <leafValues>
            8.0360561609268188e-01 -3.0776229500770569e-01</leafValues></_>
        <_>
          <internalNodes>
            0 -1 65 -1.1579681187868118e-02</internalNodes>
          <leafValues>
            8.0404520034790039e-01 -4.1331338882446289e-01</leafValues></_>
        <_>
          <internalNodes>
            0 -1 52 -9.7614340484142303e-03</internalNodes>
          <leafValues>
            8.8593697547912598e-01 -3.7997487187385559e-01</leafValues></_></weakClassifiers></_>
    <!-- stage 13 -->
    <_>
      <maxWeakCount>4</maxWeakCount>
      <stageThreshold>-4.3270125985145569e-01</stageThreshold>
      <weakClassifiers>
        <_>
          <internalNodes>
            0 -1 16 -2.0082581322640181e-03</internalNodes>
          <leafValues>
            -8.6301368474960327e-01 3.9072847366333008e-01</leafValues></_>
        <_>
          <internalNodes>
            0 -1 61 3.3605840057134628e-02</internalNodes>
          <leafValues>
            -4.3808728456497192e-01 8.7214088439941406e-01</leafValues></_>
        <_>
          <internalNodes>
            0 -1 22 -3.5731319803744555e-04</internalNodes>
          <leafValues>
            -7.9824584722518921e-01 4.5790717005729675e-01</leafValues></_>
        <_>
          <internalNodes>
            0 -1 10 3.7929136306047440e-04</internalNodes>
          <leafValues>
            4.1290336847305298e-01 -7.7553820610046387e-01</leafValues></_></weakClassifiers></_>
    <!-- stage 14 -->
    <_>
      <maxWeakCount>4</maxWeakCount>
      <stageThreshold>-4.1187053918838501e-01</stageThreshold>
      <weakClassifiers>
        <_>
          <internalNodes>
            0 -1 5 1.1628486681729555e-03</internalNodes>
          <leafValues>
            3.9354839920997620e-01 -9.4202899932861328e-01</leafValues></_>
        <_>
          <internalNodes>
            0 -1 13 -1.2577249435707927e-05</internalNodes>
          <leafValues>
            5.3691339492797852e-01 -7.3697113990783691e-01</leafValues></_>
        <_>
          <internalNodes>
            0 -1 19 8.2708697300404310e-04</internalNodes>
          <leafValues>
            4.0776485204696655e-01 -8.3600610494613647e-01</leafValues></_>
        <_>
          <internalNodes>
            0 -1 74 4.8232160508632660e-02</internalNodes>
          <leafValues>
            -4.1451975703239441e-01 9.5668345689773560e-01</leafValues></_></weakClassifiers></_>
    <!-- stage 15 -->
    <_>
      <maxWeakCount>5</maxWeakCount>
      <stageThreshold>-9.8547905683517456e-01</stageThreshold>
      <weakClassifiers>
        <_>
          <internalNodes>
            0 -1 77 -2.8043854981660843e-03</internalNodes>
          <leafValues>
            7.8787881135940552e-01 -3.5443037748336792e-01</leafValues></_>
        <_>
          <internalNodes>
            0 -1 76 -2.7275634929537773e-03</internalNodes>
          <leafValues>
            8.0304151773452759e-01 -3.3701539039611816e-01</leafValues></_>
        <_>
          <internalNodes>
            0 -1 64 -3.1410302035510540e-03</internalNodes>
          <leafValues>
            8.7267696857452393e-01 -2.9770803451538086e-01</leafValues></_>
        <_>
          <internalNodes>
            0 -1 37 -6.2163766415324062e-05</internalNodes>
          <leafValues>
            4.5628353953361511e-01 -7.6083356142044067e-01</leafValues></_>
        <_>
          <internalNodes>
            0 -1 66 -1.8442586064338684e-02</internalNodes>
          <leafValues>
            8.4938281774520874e-01 -4.5260882377624512e-01</leafValues></_></weakClassifiers></_>
    <!-- stage 16 -->
    <_>
      <maxWeakCount>6</maxWeakCount>
      <stageThreshold>-1.0613518953323364e+00</stageThreshold>
      <weakClassifiers>
        <_>
          <internalNodes>
            0 -1 48 -4.5289777219295502e-02</internalNodes>
          <leafValues>
            7.2839504480361938e-01 -4.4055944681167603e-01</leafValues></_>
        <_>
          <internalNodes>
            0 -1 67 1.5683148521929979e-03</internalNodes>
          <leafValues>
            -3.3684921264648438e-01 7.7281188964843750e-01</leafValues></_>
        <_>
          <internalNodes>
            0 -1 47 1.0910877957940102e-02</internalNodes>
          <leafValues>
            -3.2910341024398804e-01 9.0893495082855225e-01</leafValues></_>
        <_>
          <internalNodes>
            0 -1 31 -2.5174773327307776e-05</internalNodes>
          <leafValues>
            4.9510905146598816e-01 -5.6964129209518433e-01</leafValues></_>
        <_>
          <internalNodes>
            0 -1 70 -6.9178943522274494e-03</internalNodes>
          <leafValues>
            8.8598084449768066e-01 -3.8094303011894226e-01</leafValues></_>
        <_>
          <internalNodes>
            0 -1 72 9.2259217053651810e-03</internalNodes>
          <leafValues>
            -2.4229389429092407e-01 9.0928071737289429e-01</leafValues></_></weakClassifiers></_>
    <!-- stage 17 -->
    <_>
      <maxWeakCount>6</maxWeakCount>
      <stageThreshold>-4.2571926116943359e-01</stageThreshold>
      <weakClassifiers>
        <_>
          <internalNodes>
            0 -1 2 -1.0747948181233369e-05</internalNodes>
          <leafValues>
            3.7062937021255493e-01 -7.0370370149612427e-01</leafValues></_>
        <_>
          <internalNodes>
            0 -1 34 -1.1137170986330602e-05</internalNodes>
          <leafValues>
            3.3394789695739746e-01 -6.8659627437591553e-01</leafValues></_>
        <_>
          <internalNodes>
            0 -1 53 -1.2944232730660588e-04</internalNodes>
          <leafValues>
            3.1519618630409241e-01 -7.2469371557235718e-01</leafValues></_>
        <_>
          <internalNodes>
            0 -1 56 -5.9378892183303833e-03</internalNodes>
          <leafValues>
            7.6224273443222046e-01 -3.4126412868499756e-01</leafValues></_>
        <_>
          <internalNodes>
            0 -1 36 1.0415197175461799e-04</internalNodes>
          <leafValues>
            3.4757733345031738e-01 -7.6590901613235474e-01</leafValues></_>
        <_>
          <internalNodes>
            0 -1 58 2.7577061206102371e-02</internalNodes>
          <leafValues>
            -3.7747284770011902e-01 9.3183034658432007e-01</leafValues></_></weakClassifiers></_>
    <!-- stage 18 -->
    <_>
      <maxWeakCount>5</maxWeakCount>
      <stageThreshold>-1.0998330116271973e+00</stageThreshold>
      <weakClassifiers>
        <_>
          <internalNodes>
            0 -1 26 1.6616698121652007e-04</internalNodes>
          <leafValues>
            2.7380952239036560e-01 -8.9285713434219360e-01</leafValues></_>
        <_>
          <internalNodes>
            0 -1 50 -3.8886768743395805e-03</internalNodes>
          <leafValues>
            5.5748808383941650e-01 -5.2344673871994019e-01</leafValues></_>
        <_>
          <internalNodes>
            0 -1 44 1.9353462266735733e-04</internalNodes>
          <leafValues>
            3.8739469647407532e-01 -7.9021340608596802e-01</leafValues></_>
        <_>
          <internalNodes>
            0 -1 68 -1.4374272897839546e-02</internalNodes>
          <leafValues>
            8.7903296947479248e-01 -4.2774257063865662e-01</leafValues></_>
        <_>
          <internalNodes>
            0 -1 38 -6.5104448003694415e-04</internalNodes>
          <leafValues>
            -8.3581346273422241e-01 3.5681879520416260e-01</leafValues></_></weakClassifiers></_>
    <!-- stage 19 -->
    <_>
      <maxWeakCount>6</maxWeakCount>
      <stageThreshold>-2.7823078632354736e-01</stageThreshold>
      <weakClassifiers>
        <_>
          <internalNodes>
            0 -1 35 -8.3440972957760096e-05</internalNodes>
          <leafValues>
            -7.6315790414810181e-01 3.6486485600471497e-01</leafValues></_>
        <_>
          <internalNodes>
            0 -1 11 -1.1608258319029119e-05</internalNodes>
          <leafValues>
            3.2626861333847046e-01 -7.3102247714996338e-01</leafValues></_>
        <_>
          <internalNodes>
            0 -1 49 -7.8236765693873167e-04</internalNodes>
          <leafValues>
            4.9856597185134888e-01 -6.1622852087020874e-01</leafValues></_>
        <_>
          <internalNodes>
            0 -1 0 -7.3573384725023061e-05</internalNodes>
          <leafValues>
            -7.4798148870468140e-01 3.6639028787612915e-01</leafValues></_>
        <_>
          <internalNodes>
            0 -1 73 -4.0064435452222824e-03</internalNodes>
          <leafValues>
            8.6243814229965210e-01 -3.4580129384994507e-01</leafValues></_>
        <_>
          <internalNodes>
            0 -1 59 -1.2096615508198738e-02</internalNodes>
          <leafValues>
            8.0609977245330811e-01 -3.6049649119377136e-01</leafValues></_></weakClassifiers></_></stages>
  <features>
    <_>
      <rects>
        <_>
          0 0 3 2 -1.</_>
        <_>
          1 0 1 2 3.</_></rects>
      <tilted>0</tilted></_>
    <_>
      <rects>
        <_>
          0 4 2 3 -1.</_>
        <_>
          1 4 1 3 2.</_></rects>
      <tilted>0</tilted></_>
    <_>
      <rects>
        <_>
          0 9 2 1 -1.</_>
        <_>
          1 9 1 1 2.</_></rects>
      <tilted>0</tilted></_>
    <_>
      <rects>
        <_>
          0 9 3 1 -1.</_>
        <_>
          1 9 1 1 3.</_></rects>
      <tilted>0</tilted></_>
    <_>
      <rects>
        <_>
          0 11 3 3 -1.</_>
        <_>
          1 11 1 3 3.</_></rects>
      <tilted>0</tilted></_>
    <_>
      <rects>
        <_>
          0 11 3 12 -1.</_>
        <_>
          1 11 1 12 3.</_></rects>
      <tilted>0</tilted></_>
    <_>
      <rects>
        <_>
          0 14 3 2 -1.</_>
        <_>
          1 14 1 2 3.</_></rects>
      <tilted>0</tilted></_>
    <_>
      <rects>
        <_>
          0 17 3 5 -1.</_>
        <_>
          1 17 1 5 3.</_></rects>
      <tilted>0</tilted></_>
    <_>
      <rects>
        <_>
          0 19 3 6 -1.</_>
        <_>
          1 19 1 6 3.</_></rects>
      <tilted>0</tilted></_>
    <_>
      <rects>
        <_>
          0 20 3 2 -1.</_>
        <_>
          1 20 1 2 3.</_></rects>
      <tilted>0</tilted></_>
    <_>
      <rects>
        <_>
          0 22 2 8 -1.</_>
        <_>
          0 22 1 4 2.</_>
        <_>
          1 26 1 4 2.</_></rects>
      <tilted>0</tilted></_>
    <_>
      <rects>
        <_>
          0 23 2 1 -1.</_>
        <_>
          1 23 1 1 2.</_></rects>
      <tilted>0</tilted></_>
    <_>
      <rects>
        <_>
          0 24 6 3 -1.</_>
        <_>
          0 25 6 1 3.</_></rects>
      <tilted>0</tilted></_>
    <_>
      <rects>
        <_>
          0 25 2 1 -1.</_>
        <_>
          1 25 1 1 2.</_></rects>
      <tilted>0</tilted></_>
    <_>
      <rects>
        <_>
          0 25 2 2 -1.</_>
        <_>
          1 25 1 2 2.</_></rects>
      <tilted>0</tilted></_>
    <_>
      <rects>
        <_>
          1 4 3 4 -1.</_>
        <_>
          2 4 1 4 3.</_></rects>
      <tilted>0</tilted></_>
    <_>
      <rects>
        <_>
          1 5 2 14 -1.</_>
        <_>
          2 5 1 14 2.</_></rects>
      <tilted>0</tilted></_>
    <_>
      <rects>
        <_>
          1 8 3 2 -1.</_>
        <_>
          2 8 1 2 3.</_></rects>
      <tilted>0</tilted></_>
    <_>
      <rects>
        <_>
          1 8 3 6 -1.</_>
        <_>
          2 8 1 6 3.</_></rects>
      <tilted>0</tilted></_>
    <_>
      <rects>
        <_>
          1 8 3 9 -1.</_>
        <_>
          2 8 1 9 3.</_></rects>
      <tilted>0</tilted></_>
    <_>
      <rects>
        <_>
          1 10 3 6 -1.</_>
        <_>
          2 10 1 6 3.</_></rects>
      <tilted>0</tilted></_>
    <_>
      <rects>
        <_>
          1 17 3 5 -1.</_>
        <_>
          2 17 1 5 3.</_></rects>
      <tilted>0</tilted></_>
    <_>
      <rects>
        <_>
          1 17 4 3 -1.</_>
        <_>
          1 18 4 1 3.</_></rects>
      <tilted>0</tilted></_>
    <_>
      <rects>
        <_>
          1 18 3 7 -1.</_>
        <_>
          2 18 1 7 3.</_></rects>
      <tilted>0</tilted></_>
    <_>
      <rects>
        <_>
          1 20 3 7 -1.</_>
        <_>
          2 20 1 7 3.</_></rects>
      <tilted>0</tilted></_>
    <_>
      <rects>
        <_>
          1 22 2 1 -1.</_>
        <_>
          2 22 1 1 2.</_></rects>
      <tilted>0</tilted></_>
    <_>
      <rects>
        <_>
          1 22 2 3 -1.</_>
        <_>
          1 23 2 1 3.</_></rects>
      <tilted>0</tilted></_>
    <_>
      <rects>
        <_>
          1 24 3 3 -1.</_>
        <_>
          1 25 3 1 3.</_></rects>
      <tilted>0</tilted></_>
    <_>
      <rects>
        <_>
          1 25 2 1 -1.</_>
        <_>
          2 25 1 1 2.</_></rects>
      <tilted>0</tilted></_>
    <_>
      <rects>
        <_>
          2 5 2 2 -1.</_>
        <_>
          3 5 1 2 2.</_></rects>
      <tilted>0</tilted></_>
    <_>
      <rects>
        <_>
          2 5 3 2 -1.</_>
        <_>
          3 5 1 2 3.</_></rects>
      <tilted>0</tilted></_>
    <_>
      <rects>
        <_>
          2 7 2 1 -1.</_>
        <_>
          3 7 1 1 2.</_></rects>
      <tilted>0</tilted></_>
    <_>
      <rects>
        <_>
          2 8 2 2 -1.</_>
        <_>
          3 8 1 2 2.</_></rects>
      <tilted>0</tilted></_>
    <_>
      <rects>
        <_>
          2 20 2 1 -1.</_>
        <_>
          3 20 1 1 2.</_></rects>
      <tilted>0</tilted></_>
    <_>
      <rects>
        <_>
          2 21 2 1 -1.</_>
        <_>
          3 21 1 1 2.</_></rects>
      <tilted>0</tilted></_>
    <_>
      <rects>
        <_>
          2 22 3 1 -1.</_>
        <_>
          3 22 1 1 3.</_></rects>
      <tilted>0</tilted></_>
    <_>
      <rects>
        <_>
          2 22 3 2 -1.</_>
        <_>
          3 22 1 2 3.</_></rects>
      <tilted>0</tilted></_>
    <_>
      <rects>
        <_>
          3 7 2 2 -1.</_>
        <_>
          4 7 1 2 2.</_></rects>
      <tilted>0</tilted></_>
    <_>
      <rects>
        <_>
          3 7 2 4 -1.</_>
        <_>
          4 7 1 4 2.</_></rects>
      <tilted>0</tilted></_>
    <_>
      <rects>
        <_>
          3 8 4 1 -1.</_>
        <_>
          5 8 2 1 2.</_></rects>
      <tilted>0</tilted></_>
    <_>
      <rects>
        <_>
          3 9 2 1 -1.</_>
        <_>
          4 9 1 1 2.</_></rects>
      <tilted>0</tilted></_>
    <_>
      <rects>
        <_>
          3 25 3 1 -1.</_>
        <_>
          4 25 1 1 3.</_></rects>
      <tilted>0</tilted></_>
    <_>
      <rects>
        <_>
          3 29 12 1 -1.</_>
        <_>
          9 29 6 1 2.</_></rects>
      <tilted>0</tilted></_>
    <_>
      <rects>
        <_>
          4 25 2 1 -1.</_>
        <_>
          5 25 1 1 2.</_></rects>
      <tilted>0</tilted></_>
    <_>
      <rects>
        <_>
          5 19 2 3 -1.</_>
        <_>
          5 20 2 1 3.</_></rects>
      <tilted>0</tilted></_>
    <_>
      <rects>
        <_>
          5 25 2 1 -1.</_>
        <_>
          6 25 1 1 2.</_></rects>
      <tilted>0</tilted></_>
    <_>
      <rects>
        <_>
          5 28 12 2 -1.</_>
        <_>
          11 28 6 2 2.</_></rects>
      <tilted>0</tilted></_>
    <_>
      <rects>
        <_>
          6 12 8 10 -1.</_>
        <_>
          6 12 4 5 2.</_>
        <_>
          10 17 4 5 2.</_></rects>
      <tilted>0</tilted></_>
    <_>
      <rects>
        <_>
          7 2 23 12 -1.</_>
        <_>
          7 6 23 4 3.</_></rects>
      <tilted>0</tilted></_>
    <_>
      <rects>
        <_>
          7 29 8 1 -1.</_>
        <_>
          11 29 4 1 2.</_></rects>
      <tilted>0</tilted></_>
    <_>
      <rects>
        <_>
          8 0 21 2 -1.</_>
        <_>
          15 0 7 2 3.</_></rects>
      <tilted>0</tilted></_>
    <_>
      <rects>
        <_>
          8 2 22 12 -1.</_>
        <_>
          8 6 22 4 3.</_></rects>
      <tilted>0</tilted></_>
    <_>
      <rects>
        <_>
          8 15 12 3 -1.</_>
        <_>
          12 15 4 3 3.</_></rects>
      <tilted>0</tilted></_>
    <_>
      <rects>
        <_>
          8 24 2 6 -1.</_>
        <_>
          9 24 1 6 2.</_></rects>
      <tilted>0</tilted></_>
    <_>
      <rects>
        <_>
          9 27 2 1 -1.</_>
        <_>
          10 27 1 1 2.</_></rects>
      <tilted>0</tilted></_>
    <_>
      <rects>
        <_>
          12 5 4 15 -1.</_>
        <_>
          12 10 4 5 3.</_></rects>
      <tilted>0</tilted></_>
    <_>
      <rects>
        <_>
          12 11 3 12 -1.</_>
        <_>
          12 15 3 4 3.</_></rects>
      <tilted>0</tilted></_>
    <_>
      <rects>
        <_>
          12 15 18 15 -1.</_>
        <_>
          21 15 9 15 2.</_></rects>
      <tilted>0</tilted></_>
    <_>
      <rects>
        <_>
          13 7 2 18 -1.</_>
        <_>
          13 13 2 6 3.</_></rects>
      <tilted>0</tilted></_>
    <_>
      <rects>
        <_>
          13 15 5 9 -1.</_>
        <_>
          13 18 5 3 3.</_></rects>
      <tilted>0</tilted></_>
    <_>
      <rects>
        <_>
          14 1 16 21 -1.</_>
        <_>
          22 1 8 21 2.</_></rects>
      <tilted>0</tilted></_>
    <_>
      <rects>
        <_>
          14 8 15 12 -1.</_>
        <_>
          14 12 15 4 3.</_></rects>
      <tilted>0</tilted></_>
    <_>
      <rects>
        <_>
          14 18 16 12 -1.</_>
        <_>
          22 18 8 12 2.</_></rects>
      <tilted>0</tilted></_>
    <_>
      <rects>
        <_>
          15 8 15 9 -1.</_>
        <_>
          15 11 15 3 3.</_></rects>
      <tilted>0</tilted></_>
    <_>
      <rects>
        <_>
          15 13 4 6 -1.</_>
        <_>
          15 15 4 2 3.</_></rects>
      <tilted>0</tilted></_>
    <_>
      <rects>
        <_>
          16 3 6 21 -1.</_>
        <_>
          18 3 2 21 3.</_></rects>
      <tilted>0</tilted></_>
    <_>
      <rects>
        <_>
          16 16 14 9 -1.</_>
        <_>
          16 19 14 3 3.</_></rects>
      <tilted>0</tilted></_>
    <_>
      <rects>
        <_>
          17 24 6 2 -1.</_>
        <_>
          19 24 2 2 3.</_></rects>
      <tilted>0</tilted></_>
    <_>
      <rects>
        <_>
          18 8 6 15 -1.</_>
        <_>
          20 8 2 15 3.</_></rects>
      <tilted>0</tilted></_>
    <_>
      <rects>
        <_>
          18 10 6 11 -1.</_>
        <_>
          20 10 2 11 3.</_></rects>
      <tilted>0</tilted></_>
    <_>
      <rects>
        <_>
          19 11 6 6 -1.</_>
        <_>
          19 13 6 2 3.</_></rects>
      <tilted>0</tilted></_>
    <_>
      <rects>
        <_>
          20 6 8 18 -1.</_>
        <_>
          20 12 8 6 3.</_></rects>
      <tilted>0</tilted></_>
    <_>
      <rects>
        <_>
          21 14 9 4 -1.</_>
        <_>
          24 14 3 4 3.</_></rects>
      <tilted>0</tilted></_>
    <_>
      <rects>
        <_>
          22 17 6 5 -1.</_>
        <_>
          24 17 2 5 3.</_></rects>
      <tilted>0</tilted></_>
    <_>
      <rects>
        <_>
          23 1 4 24 -1.</_>
        <_>
          23 9 4 8 3.</_></rects>
      <tilted>0</tilted></_>
    <_>
      <rects>
        <_>
          25 6 5 2 -1.</_>
        <_>
          25 7 5 1 2.</_></rects>
      <tilted>0</tilted></_>
    <_>
      <rects>
        <_>
          27 9 3 9 -1.</_>
        <_>
          27 12 3 3 3.</_></rects>
      <tilted>0</tilted></_>
    <_>
      <rects>
        <_>
          28 3 1 12 -1.</_>
        <_>
          28 7 1 4 3.</_></rects>
      <tilted>0</tilted></_></features></cascade>
</opencv_storage>
